digraph Tree {
node [shape=box, style="filled", color="black"] ;
graph [ranksep=equally, splines=polyline] ;
0 [label="checking_status <= 0.5\ngini = 0.425\nsamples = 700\nvalue = [214, 486]\nclass = bad", fillcolor="#90c8f0"] ;
1 [label="other_payment_plans <= 0.5\ngini = 0.219\nsamples = 272\nvalue = [34, 238]\nclass = bad", fillcolor="#55abe9"] ;
0 -> 1 [labeldistance=2.5, labelangle=45, headlabel="True"] ;
2 [label="purpose <= 3.5\ngini = 0.466\nsamples = 27\nvalue = [10, 17]\nclass = bad", fillcolor="#add7f4"] ;
1 -> 2 ;
3 [label="age <= 44.5\ngini = 0.473\nsamples = 13\nvalue = [8, 5]\nclass = good", fillcolor="#f5d0b5"] ;
2 -> 3 ;
4 [label="savings_status <= 0.5\ngini = 0.32\nsamples = 10\nvalue = [8, 2]\nclass = good", fillcolor="#eca06a"] ;
3 -> 4 ;
5 [label="gini = 0.0\nsamples = 1\nvalue = [0, 1]\nclass = bad", fillcolor="#399de5"] ;
4 -> 5 ;
6 [label="installment_commitment <= 1.5\ngini = 0.198\nsamples = 9\nvalue = [8, 1]\nclass = good", fillcolor="#e89152"] ;
4 -> 6 ;
7 [label="gini = 0.0\nsamples = 1\nvalue = [0, 1]\nclass = bad", fillcolor="#399de5"] ;
6 -> 7 ;
8 [label="gini = 0.0\nsamples = 8\nvalue = [8, 0]\nclass = good", fillcolor="#e58139"] ;
6 -> 8 ;
9 [label="gini = 0.0\nsamples = 3\nvalue = [0, 3]\nclass = bad", fillcolor="#399de5"] ;
3 -> 9 ;
10 [label="credit_amount <= 1137.5\ngini = 0.245\nsamples = 14\nvalue = [2, 12]\nclass = bad", fillcolor="#5aade9"] ;
2 -> 10 ;
11 [label="gini = 0.0\nsamples = 1\nvalue = [1, 0]\nclass = good", fillcolor="#e58139"] ;
10 -> 11 ;
12 [label="savings_status <= 2.5\ngini = 0.142\nsamples = 13\nvalue = [1, 12]\nclass = bad", fillcolor="#49a5e7"] ;
10 -> 12 ;
13 [label="existing_credits <= 1.5\ngini = 0.444\nsamples = 3\nvalue = [1, 2]\nclass = bad", fillcolor="#9ccef2"] ;
12 -> 13 ;
14 [label="gini = 0.0\nsamples = 2\nvalue = [0, 2]\nclass = bad", fillcolor="#399de5"] ;
13 -> 14 ;
15 [label="gini = 0.0\nsamples = 1\nvalue = [1, 0]\nclass = good", fillcolor="#e58139"] ;
13 -> 15 ;
16 [label="gini = 0.0\nsamples = 10\nvalue = [0, 10]\nclass = bad", fillcolor="#399de5"] ;
12 -> 16 ;
17 [label="age <= 28.5\ngini = 0.177\nsamples = 245\nvalue = [24, 221]\nclass = bad", fillcolor="#4fa8e8"] ;
1 -> 17 ;
18 [label="duration <= 34.5\ngini = 0.316\nsamples = 66\nvalue = [13, 53]\nclass = bad", fillcolor="#6ab5eb"] ;
17 -> 18 ;
19 [label="other_parties <= 1.5\ngini = 0.226\nsamples = 54\nvalue = [7, 47]\nclass = bad", fillcolor="#56ace9"] ;
18 -> 19 ;
20 [label="age <= 27.5\ngini = 0.444\nsamples = 3\nvalue = [2, 1]\nclass = good", fillcolor="#f2c09c"] ;
19 -> 20 ;
21 [label="gini = 0.0\nsamples = 2\nvalue = [2, 0]\nclass = good", fillcolor="#e58139"] ;
20 -> 21 ;
22 [label="gini = 0.0\nsamples = 1\nvalue = [0, 1]\nclass = bad", fillcolor="#399de5"] ;
20 -> 22 ;
23 [label="credit_amount <= 1349.5\ngini = 0.177\nsamples = 51\nvalue = [5, 46]\nclass = bad", fillcolor="#4fa8e8"] ;
19 -> 23 ;
24 [label="gini = 0.0\nsamples = 19\nvalue = [0, 19]\nclass = bad", fillcolor="#399de5"] ;
23 -> 24 ;
25 [label="credit_amount <= 1523.0\ngini = 0.264\nsamples = 32\nvalue = [5, 27]\nclass = bad", fillcolor="#5eafea"] ;
23 -> 25 ;
26 [label="duration <= 18.0\ngini = 0.444\nsamples = 3\nvalue = [2, 1]\nclass = good", fillcolor="#f2c09c"] ;
25 -> 26 ;
27 [label="gini = 0.0\nsamples = 2\nvalue = [2, 0]\nclass = good", fillcolor="#e58139"] ;
26 -> 27 ;
28 [label="gini = 0.0\nsamples = 1\nvalue = [0, 1]\nclass = bad", fillcolor="#399de5"] ;
26 -> 28 ;
29 [label="purpose <= 7.5\ngini = 0.185\nsamples = 29\nvalue = [3, 26]\nclass = bad", fillcolor="#50a8e8"] ;
25 -> 29 ;
30 [label="installment_commitment <= 2.5\ngini = 0.133\nsamples = 28\nvalue = [2, 26]\nclass = bad", fillcolor="#48a5e7"] ;
29 -> 30 ;
31 [label="gini = 0.0\nsamples = 17\nvalue = [0, 17]\nclass = bad", fillcolor="#399de5"] ;
30 -> 31 ;
32 [label="age <= 22.0\ngini = 0.298\nsamples = 11\nvalue = [2, 9]\nclass = bad", fillcolor="#65b3eb"] ;
30 -> 32 ;
33 [label="gini = 0.0\nsamples = 1\nvalue = [1, 0]\nclass = good", fillcolor="#e58139"] ;
32 -> 33 ;
34 [label="credit_amount <= 2226.5\ngini = 0.18\nsamples = 10\nvalue = [1, 9]\nclass = bad", fillcolor="#4fa8e8"] ;
32 -> 34 ;
35 [label="residence_since <= 3.0\ngini = 0.5\nsamples = 2\nvalue = [1, 1]\nclass = good", fillcolor="#ffffff"] ;
34 -> 35 ;
36 [label="gini = 0.0\nsamples = 1\nvalue = [1, 0]\nclass = good", fillcolor="#e58139"] ;
35 -> 36 ;
37 [label="gini = 0.0\nsamples = 1\nvalue = [0, 1]\nclass = bad", fillcolor="#399de5"] ;
35 -> 37 ;
38 [label="gini = 0.0\nsamples = 8\nvalue = [0, 8]\nclass = bad", fillcolor="#399de5"] ;
34 -> 38 ;
39 [label="gini = 0.0\nsamples = 1\nvalue = [1, 0]\nclass = good", fillcolor="#e58139"] ;
29 -> 39 ;
40 [label="purpose <= 6.0\ngini = 0.5\nsamples = 12\nvalue = [6, 6]\nclass = good", fillcolor="#ffffff"] ;
18 -> 40 ;
41 [label="credit_amount <= 2959.0\ngini = 0.278\nsamples = 6\nvalue = [5, 1]\nclass = good", fillcolor="#ea9a61"] ;
40 -> 41 ;
42 [label="gini = 0.0\nsamples = 1\nvalue = [0, 1]\nclass = bad", fillcolor="#399de5"] ;
41 -> 42 ;
43 [label="gini = 0.0\nsamples = 5\nvalue = [5, 0]\nclass = good", fillcolor="#e58139"] ;
41 -> 43 ;
44 [label="job <= 1.5\ngini = 0.278\nsamples = 6\nvalue = [1, 5]\nclass = bad", fillcolor="#61b1ea"] ;
40 -> 44 ;
45 [label="gini = 0.0\nsamples = 1\nvalue = [1, 0]\nclass = good", fillcolor="#e58139"] ;
44 -> 45 ;
46 [label="gini = 0.0\nsamples = 5\nvalue = [0, 5]\nclass = bad", fillcolor="#399de5"] ;
44 -> 46 ;
47 [label="credit_amount <= 3607.5\ngini = 0.115\nsamples = 179\nvalue = [11, 168]\nclass = bad", fillcolor="#46a3e7"] ;
17 -> 47 ;
48 [label="housing <= 0.5\ngini = 0.061\nsamples = 127\nvalue = [4, 123]\nclass = bad", fillcolor="#3fa0e6"] ;
47 -> 48 ;
49 [label="duration <= 30.0\ngini = 0.346\nsamples = 9\nvalue = [2, 7]\nclass = bad", fillcolor="#72b9ec"] ;
48 -> 49 ;
50 [label="savings_status <= 3.5\ngini = 0.219\nsamples = 8\nvalue = [1, 7]\nclass = bad", fillcolor="#55abe9"] ;
49 -> 50 ;
51 [label="gini = 0.0\nsamples = 7\nvalue = [0, 7]\nclass = bad", fillcolor="#399de5"] ;
50 -> 51 ;
52 [label="gini = 0.0\nsamples = 1\nvalue = [1, 0]\nclass = good", fillcolor="#e58139"] ;
50 -> 52 ;
53 [label="gini = 0.0\nsamples = 1\nvalue = [1, 0]\nclass = good", fillcolor="#e58139"] ;
49 -> 53 ;
54 [label="other_parties <= 0.5\ngini = 0.033\nsamples = 118\nvalue = [2, 116]\nclass = bad", fillcolor="#3c9fe5"] ;
48 -> 54 ;
55 [label="residence_since <= 1.5\ngini = 0.375\nsamples = 4\nvalue = [1, 3]\nclass = bad", fillcolor="#7bbeee"] ;
54 -> 55 ;
56 [label="gini = 0.0\nsamples = 1\nvalue = [1, 0]\nclass = good", fillcolor="#e58139"] ;
55 -> 56 ;
57 [label="gini = 0.0\nsamples = 3\nvalue = [0, 3]\nclass = bad", fillcolor="#399de5"] ;
55 -> 57 ;
58 [label="num_dependents <= 1.5\ngini = 0.017\nsamples = 114\nvalue = [1, 113]\nclass = bad", fillcolor="#3b9ee5"] ;
54 -> 58 ;
59 [label="gini = 0.0\nsamples = 95\nvalue = [0, 95]\nclass = bad", fillcolor="#399de5"] ;
58 -> 59 ;
60 [label="age <= 45.5\ngini = 0.1\nsamples = 19\nvalue = [1, 18]\nclass = bad", fillcolor="#44a2e6"] ;
58 -> 60 ;
61 [label="gini = 0.0\nsamples = 17\nvalue = [0, 17]\nclass = bad", fillcolor="#399de5"] ;
60 -> 61 ;
62 [label="purpose <= 4.0\ngini = 0.5\nsamples = 2\nvalue = [1, 1]\nclass = good", fillcolor="#ffffff"] ;
60 -> 62 ;
63 [label="gini = 0.0\nsamples = 1\nvalue = [1, 0]\nclass = good", fillcolor="#e58139"] ;
62 -> 63 ;
64 [label="gini = 0.0\nsamples = 1\nvalue = [0, 1]\nclass = bad", fillcolor="#399de5"] ;
62 -> 64 ;
65 [label="duration <= 25.5\ngini = 0.233\nsamples = 52\nvalue = [7, 45]\nclass = bad", fillcolor="#58ace9"] ;
47 -> 65 ;
66 [label="savings_status <= 1.5\ngini = 0.384\nsamples = 27\nvalue = [7, 20]\nclass = bad", fillcolor="#7ebfee"] ;
65 -> 66 ;
67 [label="age <= 40.5\ngini = 0.5\nsamples = 10\nvalue = [5, 5]\nclass = good", fillcolor="#ffffff"] ;
66 -> 67 ;
68 [label="gini = 0.0\nsamples = 3\nvalue = [3, 0]\nclass = good", fillcolor="#e58139"] ;
67 -> 68 ;
69 [label="property_magnitude <= 2.5\ngini = 0.408\nsamples = 7\nvalue = [2, 5]\nclass = bad", fillcolor="#88c4ef"] ;
67 -> 69 ;
70 [label="gini = 0.0\nsamples = 4\nvalue = [0, 4]\nclass = bad", fillcolor="#399de5"] ;
69 -> 70 ;
71 [label="installment_commitment <= 2.5\ngini = 0.444\nsamples = 3\nvalue = [2, 1]\nclass = good", fillcolor="#f2c09c"] ;
69 -> 71 ;
72 [label="gini = 0.0\nsamples = 2\nvalue = [2, 0]\nclass = good", fillcolor="#e58139"] ;
71 -> 72 ;
73 [label="gini = 0.0\nsamples = 1\nvalue = [0, 1]\nclass = bad", fillcolor="#399de5"] ;
71 -> 73 ;
74 [label="other_payment_plans <= 1.5\ngini = 0.208\nsamples = 17\nvalue = [2, 15]\nclass = bad", fillcolor="#53aae8"] ;
66 -> 74 ;
75 [label="existing_credits <= 2.5\ngini = 0.117\nsamples = 16\nvalue = [1, 15]\nclass = bad", fillcolor="#46a4e7"] ;
74 -> 75 ;
76 [label="gini = 0.0\nsamples = 14\nvalue = [0, 14]\nclass = bad", fillcolor="#399de5"] ;
75 -> 76 ;
77 [label="job <= 1.5\ngini = 0.5\nsamples = 2\nvalue = [1, 1]\nclass = good", fillcolor="#ffffff"] ;
75 -> 77 ;
78 [label="gini = 0.0\nsamples = 1\nvalue = [1, 0]\nclass = good", fillcolor="#e58139"] ;
77 -> 78 ;
79 [label="gini = 0.0\nsamples = 1\nvalue = [0, 1]\nclass = bad", fillcolor="#399de5"] ;
77 -> 79 ;
80 [label="gini = 0.0\nsamples = 1\nvalue = [1, 0]\nclass = good", fillcolor="#e58139"] ;
74 -> 80 ;
81 [label="gini = 0.0\nsamples = 25\nvalue = [0, 25]\nclass = bad", fillcolor="#399de5"] ;
65 -> 81 ;
82 [label="duration <= 43.5\ngini = 0.487\nsamples = 428\nvalue = [180, 248]\nclass = bad", fillcolor="#c9e4f8"] ;
0 -> 82 [labeldistance=2.5, labelangle=-45, headlabel="False"] ;
83 [label="duration <= 8.5\ngini = 0.476\nsamples = 396\nvalue = [155, 241]\nclass = bad", fillcolor="#b8dcf6"] ;
82 -> 83 ;
84 [label="credit_history <= 0.5\ngini = 0.188\nsamples = 38\nvalue = [4, 34]\nclass = bad", fillcolor="#50a9e8"] ;
83 -> 84 ;
85 [label="gini = 0.0\nsamples = 2\nvalue = [2, 0]\nclass = good", fillcolor="#e58139"] ;
84 -> 85 ;
86 [label="credit_amount <= 9286.0\ngini = 0.105\nsamples = 36\nvalue = [2, 34]\nclass = bad", fillcolor="#45a3e7"] ;
84 -> 86 ;
87 [label="credit_amount <= 3015.5\ngini = 0.056\nsamples = 35\nvalue = [1, 34]\nclass = bad", fillcolor="#3fa0e6"] ;
86 -> 87 ;
88 [label="gini = 0.0\nsamples = 32\nvalue = [0, 32]\nclass = bad", fillcolor="#399de5"] ;
87 -> 88 ;
89 [label="personal_status <= 2.0\ngini = 0.444\nsamples = 3\nvalue = [1, 2]\nclass = bad", fillcolor="#9ccef2"] ;
87 -> 89 ;
90 [label="gini = 0.0\nsamples = 1\nvalue = [1, 0]\nclass = good", fillcolor="#e58139"] ;
89 -> 90 ;
91 [label="gini = 0.0\nsamples = 2\nvalue = [0, 2]\nclass = bad", fillcolor="#399de5"] ;
89 -> 91 ;
92 [label="gini = 0.0\nsamples = 1\nvalue = [1, 0]\nclass = good", fillcolor="#e58139"] ;
86 -> 92 ;
93 [label="credit_amount <= 1381.5\ngini = 0.488\nsamples = 358\nvalue = [151, 207]\nclass = bad", fillcolor="#c9e4f8"] ;
83 -> 93 ;
94 [label="property_magnitude <= 2.5\ngini = 0.496\nsamples = 101\nvalue = [55, 46]\nclass = good", fillcolor="#fbeadf"] ;
93 -> 94 ;
95 [label="duration <= 22.5\ngini = 0.489\nsamples = 73\nvalue = [31, 42]\nclass = bad", fillcolor="#cbe5f8"] ;
94 -> 95 ;
96 [label="credit_amount <= 773.5\ngini = 0.461\nsamples = 61\nvalue = [22, 39]\nclass = bad", fillcolor="#a9d4f4"] ;
95 -> 96 ;
97 [label="credit_amount <= 590.0\ngini = 0.488\nsamples = 19\nvalue = [11, 8]\nclass = good", fillcolor="#f8ddc9"] ;
96 -> 97 ;
98 [label="gini = 0.0\nsamples = 4\nvalue = [0, 4]\nclass = bad", fillcolor="#399de5"] ;
97 -> 98 ;
99 [label="checking_status <= 1.5\ngini = 0.391\nsamples = 15\nvalue = [11, 4]\nclass = good", fillcolor="#eeaf81"] ;
97 -> 99 ;
100 [label="employment <= 1.0\ngini = 0.444\nsamples = 3\nvalue = [1, 2]\nclass = bad", fillcolor="#9ccef2"] ;
99 -> 100 ;
101 [label="gini = 0.0\nsamples = 1\nvalue = [1, 0]\nclass = good", fillcolor="#e58139"] ;
100 -> 101 ;
102 [label="gini = 0.0\nsamples = 2\nvalue = [0, 2]\nclass = bad", fillcolor="#399de5"] ;
100 -> 102 ;
103 [label="housing <= 1.5\ngini = 0.278\nsamples = 12\nvalue = [10, 2]\nclass = good", fillcolor="#ea9a61"] ;
99 -> 103 ;
104 [label="age <= 37.5\ngini = 0.165\nsamples = 11\nvalue = [10, 1]\nclass = good", fillcolor="#e88e4d"] ;
103 -> 104 ;
105 [label="gini = 0.0\nsamples = 9\nvalue = [9, 0]\nclass = good", fillcolor="#e58139"] ;
104 -> 105 ;
106 [label="residence_since <= 3.0\ngini = 0.5\nsamples = 2\nvalue = [1, 1]\nclass = good", fillcolor="#ffffff"] ;
104 -> 106 ;
107 [label="gini = 0.0\nsamples = 1\nvalue = [0, 1]\nclass = bad", fillcolor="#399de5"] ;
106 -> 107 ;
108 [label="gini = 0.0\nsamples = 1\nvalue = [1, 0]\nclass = good", fillcolor="#e58139"] ;
106 -> 108 ;
109 [label="gini = 0.0\nsamples = 1\nvalue = [0, 1]\nclass = bad", fillcolor="#399de5"] ;
103 -> 109 ;
110 [label="purpose <= 7.5\ngini = 0.387\nsamples = 42\nvalue = [11, 31]\nclass = bad", fillcolor="#7fc0ee"] ;
96 -> 110 ;
111 [label="purpose <= 4.5\ngini = 0.326\nsamples = 39\nvalue = [8, 31]\nclass = bad", fillcolor="#6cb6ec"] ;
110 -> 111 ;
112 [label="age <= 27.5\ngini = 0.472\nsamples = 21\nvalue = [8, 13]\nclass = bad", fillcolor="#b3d9f5"] ;
111 -> 112 ;
113 [label="gini = 0.0\nsamples = 6\nvalue = [0, 6]\nclass = bad", fillcolor="#399de5"] ;
112 -> 113 ;
114 [label="personal_status <= 2.5\ngini = 0.498\nsamples = 15\nvalue = [8, 7]\nclass = good", fillcolor="#fcefe6"] ;
112 -> 114 ;
115 [label="age <= 60.0\ngini = 0.219\nsamples = 8\nvalue = [7, 1]\nclass = good", fillcolor="#e99355"] ;
114 -> 115 ;
116 [label="gini = 0.0\nsamples = 7\nvalue = [7, 0]\nclass = good", fillcolor="#e58139"] ;
115 -> 116 ;
117 [label="gini = 0.0\nsamples = 1\nvalue = [0, 1]\nclass = bad", fillcolor="#399de5"] ;
115 -> 117 ;
118 [label="duration <= 9.5\ngini = 0.245\nsamples = 7\nvalue = [1, 6]\nclass = bad", fillcolor="#5aade9"] ;
114 -> 118 ;
119 [label="gini = 0.0\nsamples = 1\nvalue = [1, 0]\nclass = good", fillcolor="#e58139"] ;
118 -> 119 ;
120 [label="gini = 0.0\nsamples = 6\nvalue = [0, 6]\nclass = bad", fillcolor="#399de5"] ;
118 -> 120 ;
121 [label="gini = 0.0\nsamples = 18\nvalue = [0, 18]\nclass = bad", fillcolor="#399de5"] ;
111 -> 121 ;
122 [label="gini = 0.0\nsamples = 3\nvalue = [3, 0]\nclass = good", fillcolor="#e58139"] ;
110 -> 122 ;
123 [label="own_telephone <= 0.5\ngini = 0.375\nsamples = 12\nvalue = [9, 3]\nclass = good", fillcolor="#eeab7b"] ;
95 -> 123 ;
124 [label="gini = 0.0\nsamples = 9\nvalue = [9, 0]\nclass = good", fillcolor="#e58139"] ;
123 -> 124 ;
125 [label="gini = 0.0\nsamples = 3\nvalue = [0, 3]\nclass = bad", fillcolor="#399de5"] ;
123 -> 125 ;
126 [label="residence_since <= 1.5\ngini = 0.245\nsamples = 28\nvalue = [24, 4]\nclass = good", fillcolor="#e9965a"] ;
94 -> 126 ;
127 [label="age <= 24.0\ngini = 0.444\nsamples = 3\nvalue = [1, 2]\nclass = bad", fillcolor="#9ccef2"] ;
126 -> 127 ;
128 [label="gini = 0.0\nsamples = 1\nvalue = [1, 0]\nclass = good", fillcolor="#e58139"] ;
127 -> 128 ;
129 [label="gini = 0.0\nsamples = 2\nvalue = [0, 2]\nclass = bad", fillcolor="#399de5"] ;
127 -> 129 ;
130 [label="age <= 64.0\ngini = 0.147\nsamples = 25\nvalue = [23, 2]\nclass = good", fillcolor="#e78c4a"] ;
126 -> 130 ;
131 [label="duration <= 10.5\ngini = 0.08\nsamples = 24\nvalue = [23, 1]\nclass = good", fillcolor="#e68642"] ;
130 -> 131 ;
132 [label="age <= 27.5\ngini = 0.444\nsamples = 3\nvalue = [2, 1]\nclass = good", fillcolor="#f2c09c"] ;
131 -> 132 ;
133 [label="gini = 0.0\nsamples = 1\nvalue = [0, 1]\nclass = bad", fillcolor="#399de5"] ;
132 -> 133 ;
134 [label="gini = 0.0\nsamples = 2\nvalue = [2, 0]\nclass = good", fillcolor="#e58139"] ;
132 -> 134 ;
135 [label="gini = 0.0\nsamples = 21\nvalue = [21, 0]\nclass = good", fillcolor="#e58139"] ;
131 -> 135 ;
136 [label="gini = 0.0\nsamples = 1\nvalue = [0, 1]\nclass = bad", fillcolor="#399de5"] ;
130 -> 136 ;
137 [label="checking_status <= 2.5\ngini = 0.468\nsamples = 257\nvalue = [96, 161]\nclass = bad", fillcolor="#afd7f5"] ;
93 -> 137 ;
138 [label="credit_amount <= 8150.5\ngini = 0.481\nsamples = 233\nvalue = [94, 139]\nclass = bad", fillcolor="#bfdff7"] ;
137 -> 138 ;
139 [label="credit_history <= 0.5\ngini = 0.471\nsamples = 216\nvalue = [82, 134]\nclass = bad", fillcolor="#b2d9f5"] ;
138 -> 139 ;
140 [label="age <= 23.0\ngini = 0.408\nsamples = 14\nvalue = [10, 4]\nclass = good", fillcolor="#efb388"] ;
139 -> 140 ;
141 [label="gini = 0.0\nsamples = 3\nvalue = [0, 3]\nclass = bad", fillcolor="#399de5"] ;
140 -> 141 ;
142 [label="duration <= 30.0\ngini = 0.165\nsamples = 11\nvalue = [10, 1]\nclass = good", fillcolor="#e88e4d"] ;
140 -> 142 ;
143 [label="gini = 0.0\nsamples = 10\nvalue = [10, 0]\nclass = good", fillcolor="#e58139"] ;
142 -> 143 ;
144 [label="gini = 0.0\nsamples = 1\nvalue = [0, 1]\nclass = bad", fillcolor="#399de5"] ;
142 -> 144 ;
145 [label="duration <= 26.5\ngini = 0.459\nsamples = 202\nvalue = [72, 130]\nclass = bad", fillcolor="#a7d3f3"] ;
139 -> 145 ;
146 [label="housing <= 1.5\ngini = 0.426\nsamples = 153\nvalue = [47, 106]\nclass = bad", fillcolor="#91c8f1"] ;
145 -> 146 ;
147 [label="savings_status <= 2.5\ngini = 0.371\nsamples = 114\nvalue = [28, 86]\nclass = bad", fillcolor="#79bded"] ;
146 -> 147 ;
148 [label="age <= 51.0\ngini = 0.117\nsamples = 32\nvalue = [2, 30]\nclass = bad", fillcolor="#46a4e7"] ;
147 -> 148 ;
149 [label="credit_history <= 3.5\ngini = 0.062\nsamples = 31\nvalue = [1, 30]\nclass = bad", fillcolor="#40a0e6"] ;
148 -> 149 ;
150 [label="gini = 0.0\nsamples = 29\nvalue = [0, 29]\nclass = bad", fillcolor="#399de5"] ;
149 -> 150 ;
151 [label="age <= 29.5\ngini = 0.5\nsamples = 2\nvalue = [1, 1]\nclass = good", fillcolor="#ffffff"] ;
149 -> 151 ;
152 [label="gini = 0.0\nsamples = 1\nvalue = [1, 0]\nclass = good", fillcolor="#e58139"] ;
151 -> 152 ;
153 [label="gini = 0.0\nsamples = 1\nvalue = [0, 1]\nclass = bad", fillcolor="#399de5"] ;
151 -> 153 ;
154 [label="gini = 0.0\nsamples = 1\nvalue = [1, 0]\nclass = good", fillcolor="#e58139"] ;
148 -> 154 ;
155 [label="credit_amount <= 5306.5\ngini = 0.433\nsamples = 82\nvalue = [26, 56]\nclass = bad", fillcolor="#95caf1"] ;
147 -> 155 ;
156 [label="credit_amount <= 3915.5\ngini = 0.459\nsamples = 70\nvalue = [25, 45]\nclass = bad", fillcolor="#a7d3f3"] ;
155 -> 156 ;
157 [label="residence_since <= 3.5\ngini = 0.414\nsamples = 58\nvalue = [17, 41]\nclass = bad", fillcolor="#8bc6f0"] ;
156 -> 157 ;
158 [label="employment <= 1.5\ngini = 0.463\nsamples = 44\nvalue = [16, 28]\nclass = bad", fillcolor="#aad5f4"] ;
157 -> 158 ;
159 [label="existing_credits <= 1.5\ngini = 0.365\nsamples = 25\nvalue = [6, 19]\nclass = bad", fillcolor="#78bced"] ;
158 -> 159 ;
160 [label="age <= 24.5\ngini = 0.255\nsamples = 20\nvalue = [3, 17]\nclass = bad", fillcolor="#5caeea"] ;
159 -> 160 ;
161 [label="duration <= 15.0\ngini = 0.444\nsamples = 6\nvalue = [2, 4]\nclass = bad", fillcolor="#9ccef2"] ;
160 -> 161 ;
162 [label="gini = 0.0\nsamples = 4\nvalue = [0, 4]\nclass = bad", fillcolor="#399de5"] ;
161 -> 162 ;
163 [label="gini = 0.0\nsamples = 2\nvalue = [2, 0]\nclass = good", fillcolor="#e58139"] ;
161 -> 163 ;
164 [label="age <= 35.5\ngini = 0.133\nsamples = 14\nvalue = [1, 13]\nclass = bad", fillcolor="#48a5e7"] ;
160 -> 164 ;
165 [label="gini = 0.0\nsamples = 11\nvalue = [0, 11]\nclass = bad", fillcolor="#399de5"] ;
164 -> 165 ;
166 [label="installment_commitment <= 3.0\ngini = 0.444\nsamples = 3\nvalue = [1, 2]\nclass = bad", fillcolor="#9ccef2"] ;
164 -> 166 ;
167 [label="gini = 0.0\nsamples = 2\nvalue = [0, 2]\nclass = bad", fillcolor="#399de5"] ;
166 -> 167 ;
168 [label="gini = 0.0\nsamples = 1\nvalue = [1, 0]\nclass = good", fillcolor="#e58139"] ;
166 -> 168 ;
169 [label="personal_status <= 2.5\ngini = 0.48\nsamples = 5\nvalue = [3, 2]\nclass = good", fillcolor="#f6d5bd"] ;
159 -> 169 ;
170 [label="gini = 0.0\nsamples = 3\nvalue = [3, 0]\nclass = good", fillcolor="#e58139"] ;
169 -> 170 ;
171 [label="gini = 0.0\nsamples = 2\nvalue = [0, 2]\nclass = bad", fillcolor="#399de5"] ;
169 -> 171 ;
172 [label="purpose <= 3.5\ngini = 0.499\nsamples = 19\nvalue = [10, 9]\nclass = good", fillcolor="#fcf2eb"] ;
158 -> 172 ;
173 [label="residence_since <= 2.5\ngini = 0.375\nsamples = 8\nvalue = [2, 6]\nclass = bad", fillcolor="#7bbeee"] ;
172 -> 173 ;
174 [label="credit_history <= 2.0\ngini = 0.444\nsamples = 3\nvalue = [2, 1]\nclass = good", fillcolor="#f2c09c"] ;
173 -> 174 ;
175 [label="gini = 0.0\nsamples = 1\nvalue = [0, 1]\nclass = bad", fillcolor="#399de5"] ;
174 -> 175 ;
176 [label="gini = 0.0\nsamples = 2\nvalue = [2, 0]\nclass = good", fillcolor="#e58139"] ;
174 -> 176 ;
177 [label="gini = 0.0\nsamples = 5\nvalue = [0, 5]\nclass = bad", fillcolor="#399de5"] ;
173 -> 177 ;
178 [label="residence_since <= 1.5\ngini = 0.397\nsamples = 11\nvalue = [8, 3]\nclass = good", fillcolor="#efb083"] ;
172 -> 178 ;
179 [label="installment_commitment <= 3.0\ngini = 0.48\nsamples = 5\nvalue = [2, 3]\nclass = bad", fillcolor="#bddef6"] ;
178 -> 179 ;
180 [label="gini = 0.0\nsamples = 2\nvalue = [2, 0]\nclass = good", fillcolor="#e58139"] ;
179 -> 180 ;
181 [label="gini = 0.0\nsamples = 3\nvalue = [0, 3]\nclass = bad", fillcolor="#399de5"] ;
179 -> 181 ;
182 [label="gini = 0.0\nsamples = 6\nvalue = [6, 0]\nclass = good", fillcolor="#e58139"] ;
178 -> 182 ;
183 [label="credit_amount <= 1951.0\ngini = 0.133\nsamples = 14\nvalue = [1, 13]\nclass = bad", fillcolor="#48a5e7"] ;
157 -> 183 ;
184 [label="checking_status <= 1.5\ngini = 0.375\nsamples = 4\nvalue = [1, 3]\nclass = bad", fillcolor="#7bbeee"] ;
183 -> 184 ;
185 [label="gini = 0.0\nsamples = 1\nvalue = [1, 0]\nclass = good", fillcolor="#e58139"] ;
184 -> 185 ;
186 [label="gini = 0.0\nsamples = 3\nvalue = [0, 3]\nclass = bad", fillcolor="#399de5"] ;
184 -> 186 ;
187 [label="gini = 0.0\nsamples = 10\nvalue = [0, 10]\nclass = bad", fillcolor="#399de5"] ;
183 -> 187 ;
188 [label="age <= 24.5\ngini = 0.444\nsamples = 12\nvalue = [8, 4]\nclass = good", fillcolor="#f2c09c"] ;
156 -> 188 ;
189 [label="gini = 0.0\nsamples = 2\nvalue = [0, 2]\nclass = bad", fillcolor="#399de5"] ;
188 -> 189 ;
190 [label="residence_since <= 1.5\ngini = 0.32\nsamples = 10\nvalue = [8, 2]\nclass = good", fillcolor="#eca06a"] ;
188 -> 190 ;
191 [label="gini = 0.0\nsamples = 1\nvalue = [0, 1]\nclass = bad", fillcolor="#399de5"] ;
190 -> 191 ;
192 [label="age <= 28.5\ngini = 0.198\nsamples = 9\nvalue = [8, 1]\nclass = good", fillcolor="#e89152"] ;
190 -> 192 ;
193 [label="checking_status <= 1.5\ngini = 0.5\nsamples = 2\nvalue = [1, 1]\nclass = good", fillcolor="#ffffff"] ;
192 -> 193 ;
194 [label="gini = 0.0\nsamples = 1\nvalue = [1, 0]\nclass = good", fillcolor="#e58139"] ;
193 -> 194 ;
195 [label="gini = 0.0\nsamples = 1\nvalue = [0, 1]\nclass = bad", fillcolor="#399de5"] ;
193 -> 195 ;
196 [label="gini = 0.0\nsamples = 7\nvalue = [7, 0]\nclass = good", fillcolor="#e58139"] ;
192 -> 196 ;
197 [label="age <= 48.5\ngini = 0.153\nsamples = 12\nvalue = [1, 11]\nclass = bad", fillcolor="#4ba6e7"] ;
155 -> 197 ;
198 [label="gini = 0.0\nsamples = 10\nvalue = [0, 10]\nclass = bad", fillcolor="#399de5"] ;
197 -> 198 ;
199 [label="other_payment_plans <= 0.5\ngini = 0.5\nsamples = 2\nvalue = [1, 1]\nclass = good", fillcolor="#ffffff"] ;
197 -> 199 ;
200 [label="gini = 0.0\nsamples = 1\nvalue = [0, 1]\nclass = bad", fillcolor="#399de5"] ;
199 -> 200 ;
201 [label="gini = 0.0\nsamples = 1\nvalue = [1, 0]\nclass = good", fillcolor="#e58139"] ;
199 -> 201 ;
202 [label="credit_history <= 3.5\ngini = 0.5\nsamples = 39\nvalue = [19, 20]\nclass = bad", fillcolor="#f5fafe"] ;
146 -> 202 ;
203 [label="installment_commitment <= 2.5\ngini = 0.484\nsamples = 34\nvalue = [14, 20]\nclass = bad", fillcolor="#c4e2f7"] ;
202 -> 203 ;
204 [label="credit_amount <= 2059.5\ngini = 0.337\nsamples = 14\nvalue = [3, 11]\nclass = bad", fillcolor="#6fb8ec"] ;
203 -> 204 ;
205 [label="gini = 0.0\nsamples = 2\nvalue = [2, 0]\nclass = good", fillcolor="#e58139"] ;
204 -> 205 ;
206 [label="property_magnitude <= 0.5\ngini = 0.153\nsamples = 12\nvalue = [1, 11]\nclass = bad", fillcolor="#4ba6e7"] ;
204 -> 206 ;
207 [label="gini = 0.0\nsamples = 1\nvalue = [1, 0]\nclass = good", fillcolor="#e58139"] ;
206 -> 207 ;
208 [label="gini = 0.0\nsamples = 11\nvalue = [0, 11]\nclass = bad", fillcolor="#399de5"] ;
206 -> 208 ;
209 [label="credit_amount <= 1870.0\ngini = 0.495\nsamples = 20\nvalue = [11, 9]\nclass = good", fillcolor="#fae8db"] ;
203 -> 209 ;
210 [label="gini = 0.0\nsamples = 4\nvalue = [0, 4]\nclass = bad", fillcolor="#399de5"] ;
209 -> 210 ;
211 [label="credit_amount <= 5551.5\ngini = 0.43\nsamples = 16\nvalue = [11, 5]\nclass = good", fillcolor="#f1ba93"] ;
209 -> 211 ;
212 [label="age <= 62.5\ngini = 0.337\nsamples = 14\nvalue = [11, 3]\nclass = good", fillcolor="#eca36f"] ;
211 -> 212 ;
213 [label="credit_amount <= 2662.0\ngini = 0.26\nsamples = 13\nvalue = [11, 2]\nclass = good", fillcolor="#ea985d"] ;
212 -> 213 ;
214 [label="own_telephone <= 0.5\ngini = 0.444\nsamples = 6\nvalue = [4, 2]\nclass = good", fillcolor="#f2c09c"] ;
213 -> 214 ;
215 [label="gini = 0.0\nsamples = 4\nvalue = [4, 0]\nclass = good", fillcolor="#e58139"] ;
214 -> 215 ;
216 [label="gini = 0.0\nsamples = 2\nvalue = [0, 2]\nclass = bad", fillcolor="#399de5"] ;
214 -> 216 ;
217 [label="gini = 0.0\nsamples = 7\nvalue = [7, 0]\nclass = good", fillcolor="#e58139"] ;
213 -> 217 ;
218 [label="gini = 0.0\nsamples = 1\nvalue = [0, 1]\nclass = bad", fillcolor="#399de5"] ;
212 -> 218 ;
219 [label="gini = 0.0\nsamples = 2\nvalue = [0, 2]\nclass = bad", fillcolor="#399de5"] ;
211 -> 219 ;
220 [label="gini = 0.0\nsamples = 5\nvalue = [5, 0]\nclass = good", fillcolor="#e58139"] ;
202 -> 220 ;
221 [label="installment_commitment <= 3.5\ngini = 0.5\nsamples = 49\nvalue = [25, 24]\nclass = good", fillcolor="#fefaf7"] ;
145 -> 221 ;
222 [label="age <= 26.5\ngini = 0.423\nsamples = 23\nvalue = [7, 16]\nclass = bad", fillcolor="#90c8f0"] ;
221 -> 222 ;
223 [label="savings_status <= 1.5\ngini = 0.469\nsamples = 8\nvalue = [5, 3]\nclass = good", fillcolor="#f5cdb0"] ;
222 -> 223 ;
224 [label="other_parties <= 1.0\ngini = 0.375\nsamples = 4\nvalue = [1, 3]\nclass = bad", fillcolor="#7bbeee"] ;
223 -> 224 ;
225 [label="gini = 0.0\nsamples = 1\nvalue = [1, 0]\nclass = good", fillcolor="#e58139"] ;
224 -> 225 ;
226 [label="gini = 0.0\nsamples = 3\nvalue = [0, 3]\nclass = bad", fillcolor="#399de5"] ;
224 -> 226 ;
227 [label="gini = 0.0\nsamples = 4\nvalue = [4, 0]\nclass = good", fillcolor="#e58139"] ;
223 -> 227 ;
228 [label="employment <= 2.0\ngini = 0.231\nsamples = 15\nvalue = [2, 13]\nclass = bad", fillcolor="#57ace9"] ;
222 -> 228 ;
229 [label="gini = 0.0\nsamples = 12\nvalue = [0, 12]\nclass = bad", fillcolor="#399de5"] ;
228 -> 229 ;
230 [label="credit_history <= 2.5\ngini = 0.444\nsamples = 3\nvalue = [2, 1]\nclass = good", fillcolor="#f2c09c"] ;
228 -> 230 ;
231 [label="gini = 0.0\nsamples = 1\nvalue = [0, 1]\nclass = bad", fillcolor="#399de5"] ;
230 -> 231 ;
232 [label="gini = 0.0\nsamples = 2\nvalue = [2, 0]\nclass = good", fillcolor="#e58139"] ;
230 -> 232 ;
233 [label="credit_amount <= 3713.0\ngini = 0.426\nsamples = 26\nvalue = [18, 8]\nclass = good", fillcolor="#f1b991"] ;
221 -> 233 ;
234 [label="employment <= 2.5\ngini = 0.5\nsamples = 16\nvalue = [8, 8]\nclass = good", fillcolor="#ffffff"] ;
233 -> 234 ;
235 [label="residence_since <= 1.5\ngini = 0.375\nsamples = 8\nvalue = [6, 2]\nclass = good", fillcolor="#eeab7b"] ;
234 -> 235 ;
236 [label="gini = 0.0\nsamples = 2\nvalue = [0, 2]\nclass = bad", fillcolor="#399de5"] ;
235 -> 236 ;
237 [label="gini = 0.0\nsamples = 6\nvalue = [6, 0]\nclass = good", fillcolor="#e58139"] ;
235 -> 237 ;
238 [label="credit_history <= 2.5\ngini = 0.375\nsamples = 8\nvalue = [2, 6]\nclass = bad", fillcolor="#7bbeee"] ;
234 -> 238 ;
239 [label="gini = 0.0\nsamples = 5\nvalue = [0, 5]\nclass = bad", fillcolor="#399de5"] ;
238 -> 239 ;
240 [label="duration <= 33.0\ngini = 0.444\nsamples = 3\nvalue = [2, 1]\nclass = good", fillcolor="#f2c09c"] ;
238 -> 240 ;
241 [label="gini = 0.0\nsamples = 1\nvalue = [0, 1]\nclass = bad", fillcolor="#399de5"] ;
240 -> 241 ;
242 [label="gini = 0.0\nsamples = 2\nvalue = [2, 0]\nclass = good", fillcolor="#e58139"] ;
240 -> 242 ;
243 [label="gini = 0.0\nsamples = 10\nvalue = [10, 0]\nclass = good", fillcolor="#e58139"] ;
233 -> 243 ;
244 [label="credit_history <= 2.5\ngini = 0.415\nsamples = 17\nvalue = [12, 5]\nclass = good", fillcolor="#f0b58b"] ;
138 -> 244 ;
245 [label="savings_status <= 2.0\ngini = 0.469\nsamples = 8\nvalue = [3, 5]\nclass = bad", fillcolor="#b0d8f5"] ;
244 -> 245 ;
246 [label="gini = 0.0\nsamples = 3\nvalue = [0, 3]\nclass = bad", fillcolor="#399de5"] ;
245 -> 246 ;
247 [label="employment <= 2.0\ngini = 0.48\nsamples = 5\nvalue = [3, 2]\nclass = good", fillcolor="#f6d5bd"] ;
245 -> 247 ;
248 [label="gini = 0.0\nsamples = 3\nvalue = [3, 0]\nclass = good", fillcolor="#e58139"] ;
247 -> 248 ;
249 [label="gini = 0.0\nsamples = 2\nvalue = [0, 2]\nclass = bad", fillcolor="#399de5"] ;
247 -> 249 ;
250 [label="gini = 0.0\nsamples = 9\nvalue = [9, 0]\nclass = good", fillcolor="#e58139"] ;
244 -> 250 ;
251 [label="num_dependents <= 1.5\ngini = 0.153\nsamples = 24\nvalue = [2, 22]\nclass = bad", fillcolor="#4ba6e7"] ;
137 -> 251 ;
252 [label="age <= 61.0\ngini = 0.087\nsamples = 22\nvalue = [1, 21]\nclass = bad", fillcolor="#42a2e6"] ;
251 -> 252 ;
253 [label="gini = 0.0\nsamples = 20\nvalue = [0, 20]\nclass = bad", fillcolor="#399de5"] ;
252 -> 253 ;
254 [label="savings_status <= 2.5\ngini = 0.5\nsamples = 2\nvalue = [1, 1]\nclass = good", fillcolor="#ffffff"] ;
252 -> 254 ;
255 [label="gini = 0.0\nsamples = 1\nvalue = [0, 1]\nclass = bad", fillcolor="#399de5"] ;
254 -> 255 ;
256 [label="gini = 0.0\nsamples = 1\nvalue = [1, 0]\nclass = good", fillcolor="#e58139"] ;
254 -> 256 ;
257 [label="other_parties <= 1.5\ngini = 0.5\nsamples = 2\nvalue = [1, 1]\nclass = good", fillcolor="#ffffff"] ;
251 -> 257 ;
258 [label="gini = 0.0\nsamples = 1\nvalue = [0, 1]\nclass = bad", fillcolor="#399de5"] ;
257 -> 258 ;
259 [label="gini = 0.0\nsamples = 1\nvalue = [1, 0]\nclass = good", fillcolor="#e58139"] ;
257 -> 259 ;
260 [label="savings_status <= 0.5\ngini = 0.342\nsamples = 32\nvalue = [25, 7]\nclass = good", fillcolor="#eca470"] ;
82 -> 260 ;
261 [label="gini = 0.0\nsamples = 3\nvalue = [0, 3]\nclass = bad", fillcolor="#399de5"] ;
260 -> 261 ;
262 [label="residence_since <= 1.5\ngini = 0.238\nsamples = 29\nvalue = [25, 4]\nclass = good", fillcolor="#e99559"] ;
260 -> 262 ;
263 [label="age <= 34.5\ngini = 0.444\nsamples = 3\nvalue = [1, 2]\nclass = bad", fillcolor="#9ccef2"] ;
262 -> 263 ;
264 [label="gini = 0.0\nsamples = 1\nvalue = [1, 0]\nclass = good", fillcolor="#e58139"] ;
263 -> 264 ;
265 [label="gini = 0.0\nsamples = 2\nvalue = [0, 2]\nclass = bad", fillcolor="#399de5"] ;
263 -> 265 ;
266 [label="employment <= 3.5\ngini = 0.142\nsamples = 26\nvalue = [24, 2]\nclass = good", fillcolor="#e78c49"] ;
262 -> 266 ;
267 [label="num_dependents <= 1.5\ngini = 0.077\nsamples = 25\nvalue = [24, 1]\nclass = good", fillcolor="#e68641"] ;
266 -> 267 ;
268 [label="gini = 0.0\nsamples = 22\nvalue = [22, 0]\nclass = good", fillcolor="#e58139"] ;
267 -> 268 ;
269 [label="property_magnitude <= 0.5\ngini = 0.444\nsamples = 3\nvalue = [2, 1]\nclass = good", fillcolor="#f2c09c"] ;
267 -> 269 ;
270 [label="gini = 0.0\nsamples = 1\nvalue = [0, 1]\nclass = bad", fillcolor="#399de5"] ;
269 -> 270 ;
271 [label="gini = 0.0\nsamples = 2\nvalue = [2, 0]\nclass = good", fillcolor="#e58139"] ;
269 -> 271 ;
272 [label="gini = 0.0\nsamples = 1\nvalue = [0, 1]\nclass = bad", fillcolor="#399de5"] ;
266 -> 272 ;
{rank=same ; 0} ;
{rank=same ; 1; 82} ;
{rank=same ; 34; 104; 114; 148; 155; 203; 223; 228; 234} ;
{rank=same ; 35; 106; 115; 118; 149; 156; 197; 204; 209; 224; 230; 235; 238} ;
{rank=same ; 151; 157; 188; 199; 206; 211; 240} ;
{rank=same ; 158; 183; 190; 212} ;
{rank=same ; 159; 172; 184; 192; 213} ;
{rank=same ; 160; 169; 173; 178; 193; 214} ;
{rank=same ; 161; 164; 174; 179} ;
{rank=same ; 166} ;
{rank=same ; 2; 17; 83; 260} ;
{rank=same ; 3; 10; 18; 47; 84; 93; 262} ;
{rank=same ; 4; 12; 19; 40; 48; 65; 86; 94; 137; 263; 266} ;
{rank=same ; 6; 13; 20; 23; 41; 44; 49; 54; 66; 87; 95; 126; 138; 251; 267} ;
{rank=same ; 25; 50; 55; 58; 67; 74; 89; 96; 123; 127; 130; 139; 244; 252; 257; 269} ;
{rank=same ; 26; 29; 60; 69; 75; 97; 110; 131; 140; 145; 245; 254} ;
{rank=same ; 30; 62; 71; 77; 99; 111; 132; 142; 146; 221; 247} ;
{rank=same ; 32; 100; 103; 112; 147; 202; 222; 233} ;
{rank=same ; 5; 7; 8; 9; 11; 14; 15; 16; 21; 22; 24; 27; 28; 31; 33; 36; 37; 38; 39; 42; 43; 45; 46; 51; 52; 53; 56; 57; 59; 61; 63; 64; 68; 70; 72; 73; 76; 78; 79; 80; 81; 85; 88; 90; 91; 92; 98; 101; 102; 105; 107; 108; 109; 113; 116; 117; 119; 120; 121; 122; 124; 125; 128; 129; 133; 134; 135; 136; 141; 143; 144; 150; 152; 153; 154; 162; 163; 165; 167; 168; 170; 171; 175; 176; 177; 180; 181; 182; 185; 186; 187; 189; 191; 194; 195; 196; 198; 200; 201; 205; 207; 208; 210; 215; 216; 217; 218; 219; 220; 225; 226; 227; 229; 231; 232; 236; 237; 239; 241; 242; 243; 246; 248; 249; 250; 253; 255; 256; 258; 259; 261; 264; 265; 268; 270; 271; 272} ;
}